{
    "_step": 3,
    "_runtime": 20.547651052474976,
    "_timestamp": 1576845686.301717,
    "Pretrain LR-scan": {
        "path": "media/images/Pretrain LR-scan_0_5b6aaef3.png",
        "size": 30988,
        "_type": "image-file",
        "width": 640,
        "format": "png",
        "height": 480,
        "sha256": "5b6aaef3d553d4cf5f35409f15417e86b16854f8b48b7b31a88810b52b522121",
        "caption": "Pretrain LR-scan"
    },
    "Graphs/learning rate": 0.001,
    "Train and val. error": {
        "_type": "image-file",
        "path": "media/images/Train and val. error_3_4dc655e2.png",
        "sha256": "4dc655e2b604f18e9451cf602452638c1392b23061fe9466603115d3a5731e6b",
        "size": 15156,
        "format": "png",
        "width": 640,
        "height": 480,
        "caption": "Train and val. error"
    },
    "Learning rate vs epoch": {
        "_type": "image-file",
        "path": "media/images/Learning rate vs epoch_3_9f1ecf7c.png",
        "sha256": "9f1ecf7cae02562b23daee4d552f62df402cb7abcb6319eca0443533f36d528f",
        "size": 14237,
        "format": "png",
        "width": 640,
        "height": 480,
        "caption": "Learning rate vs epoch"
    },
    "Weights/L1_Linear_bias": {
        "bins": [
            -0.4694348871707916,
            -0.4551169276237488,
            -0.4407989978790283,
            -0.4264810383319855,
            -0.412163108587265,
            -0.39784514904022217,
            -0.3835272192955017,
            -0.36920925974845886,
            -0.3548913300037384,
            -0.34057337045669556,
            -0.3262554407119751,
            -0.31193748116493225,
            -0.2976195216178894,
            -0.28330159187316895,
            -0.2689836323261261,
            -0.25466570258140564,
            -0.2403477430343628,
            -0.2260297983884811,
            -0.2117118537425995,
            -0.19739390909671783,
            -0.18307596445083615,
            -0.16875801980495453,
            -0.15444007515907288,
            -0.14012213051319122,
            -0.12580418586730957,
            -0.11148623377084732,
            -0.09716828912496568,
            -0.08285034447908401,
            -0.06853239983320236,
            -0.05421445146203041,
            -0.03989650681614876,
            -0.025578560307621956,
            -0.011260613799095154,
            0.003057332243770361,
            0.01737527921795845,
            0.0316932238638401,
            0.046011172235012054,
            0.06032911688089371,
            0.07464706152677536,
            0.08896500617265701,
            0.10328295826911926,
            0.11760090291500092,
            0.13191884756088257,
            0.14623679220676422,
            0.16055473685264587,
            0.17487268149852753,
            0.1891906261444092,
            0.20350857079029083,
            0.21782651543617249,
            0.23214447498321533,
            0.24646241962909696,
            0.26078036427497864,
            0.2750982940196991,
            0.28941625356674194,
            0.3037342131137848,
            0.31805214285850525,
            0.3323701024055481,
            0.34668803215026855,
            0.3610059916973114,
            0.37532392144203186,
            0.3896418809890747,
            0.4039598107337952,
            0.418277770280838,
            0.43259570002555847,
            0.4469136595726013
        ],
        "_type": "histogram",
        "values": [
            1,
            0,
            2,
            0,
            1,
            1,
            3,
            3,
            0,
            0,
            0,
            0,
            0,
            2,
            2,
            0,
            1,
            1,
            0,
            2,
            0,
            1,
            2,
            1,
            1,
            1,
            0,
            2,
            1,
            1,
            2,
            2,
            1,
            2,
            3,
            1,
            0,
            0,
            0,
            2,
            1,
            3,
            0,
            1,
            2,
            1,
            1,
            0,
            0,
            0,
            0,
            2,
            0,
            1,
            0,
            2,
            2,
            1,
            1,
            0,
            2,
            0,
            1,
            1
        ]
    },
    "Weights/L2_Linear_bias": {
        "bins": [
            -0.16640625894069672,
            -0.16252955794334412,
            -0.1586528718471527,
            -0.1547761708498001,
            -0.1508994847536087,
            -0.1470227837562561,
            -0.1431460976600647,
            -0.1392693966627121,
            -0.1353927105665207,
            -0.1315160095691681,
            -0.12763932347297668,
            -0.12376262247562408,
            -0.11988592892885208,
            -0.11600923538208008,
            -0.11213254183530807,
            -0.10825584828853609,
            -0.10437915474176408,
            -0.10050246119499208,
            -0.09662576764822006,
            -0.09274907410144806,
            -0.08887238055467606,
            -0.08499568700790405,
            -0.08111899346113205,
            -0.07724229991436005,
            -0.07336560636758804,
            -0.06948891282081604,
            -0.06561221927404404,
            -0.061735522001981735,
            -0.05785882845520973,
            -0.05398213490843773,
            -0.050105441361665726,
            -0.04622874781489372,
            -0.04235205426812172,
            -0.03847536072134971,
            -0.03459866717457771,
            -0.03072197176516056,
            -0.026845278218388557,
            -0.02296858467161655,
            -0.01909189112484455,
            -0.015215196646749972,
            -0.01133850309997797,
            -0.00746180908754468,
            -0.003585115307942033,
            0.00029157858807593584,
            0.0041682724840939045,
            0.008044966496527195,
            0.011921660043299198,
            0.015798354521393776,
            0.01967504806816578,
            0.023551741614937782,
            0.027428435161709785,
            0.03130513057112694,
            0.03518182411789894,
            0.039058517664670944,
            0.04293521121144295,
            0.04681190475821495,
            0.050688598304986954,
            0.05456529185175896,
            0.05844198539853096,
            0.06231868267059326,
            0.06619537621736526,
            0.07007206976413727,
            0.07394876331090927,
            0.07782545685768127,
            0.08170215040445328
        ],
        "_type": "histogram",
        "values": [
            1,
            0,
            0,
            0,
            0,
            0,
            0,
            0,
            0,
            0,
            0,
            0,
            0,
            0,
            0,
            0,
            0,
            0,
            0,
            0,
            0,
            0,
            0,
            1,
            0,
            0,
            0,
            0,
            0,
            0,
            0,
            0,
            0,
            0,
            0,
            0,
            0,
            0,
            0,
            0,
            0,
            0,
            0,
            0,
            0,
            0,
            0,
            0,
            0,
            0,
            0,
            0,
            0,
            0,
            0,
            0,
            0,
            0,
            0,
            0,
            0,
            0,
            0,
            1
        ]
    },
    "Graphs/val. custom_loss": 135.39808836437408,
    "Gradients/L1_Linear_bias": {
        "bins": [
            -1.124955844034048e-07,
            -1.1174157776849825e-07,
            -1.1098756402816434e-07,
            -1.102335573932578e-07,
            -1.0947955075835125e-07,
            -1.0872553701801741e-07,
            -1.079715303831108e-07,
            -1.0721752374820428e-07,
            -1.0646351000787037e-07,
            -1.0570950337296381e-07,
            -1.0495549673805726e-07,
            -1.0420148299772337e-07,
            -1.0344747636281681e-07,
            -1.0269346972791028e-07,
            -1.0193946309300372e-07,
            -1.0118544935266985e-07,
            -1.0043144271776329e-07,
            -9.967743608285673e-08,
            -9.892342234252285e-08,
            -9.81694157076163e-08,
            -9.741540907270976e-08,
            -9.666139533237585e-08,
            -9.590738869746929e-08,
            -9.515338206256277e-08,
            -9.439936832222885e-08,
            -9.364536168732229e-08,
            -9.289135505241577e-08,
            -9.213734131208184e-08,
            -9.13833346771753e-08,
            -9.062932804226877e-08,
            -8.987531430193486e-08,
            -8.91213076670283e-08,
            -8.836730103212177e-08,
            -8.761328729178788e-08,
            -8.685928065688132e-08,
            -8.610527402197476e-08,
            -8.535126028164086e-08,
            -8.459725364673434e-08,
            -8.384324701182777e-08,
            -8.308924037692125e-08,
            -8.233522663658732e-08,
            -8.15812200016808e-08,
            -8.082721336677423e-08,
            -8.007319962644034e-08,
            -7.931919299153378e-08,
            -7.856518635662725e-08,
            -7.781117261629333e-08,
            -7.70571659813868e-08,
            -7.630315934648024e-08,
            -7.554914560614635e-08,
            -7.47951389712398e-08,
            -7.404113233633326e-08,
            -7.328711859599937e-08,
            -7.25331119610928e-08,
            -7.177910532618625e-08,
            -7.102509158585235e-08,
            -7.02710849509458e-08,
            -6.951707831603926e-08,
            -6.876306457570537e-08,
            -6.800905794079881e-08,
            -6.725505130589228e-08,
            -6.650103756555836e-08,
            -6.574703093065183e-08,
            -6.499302429574527e-08,
            -6.423901766083874e-08,
            -6.348500392050482e-08,
            -6.273099728559829e-08,
            -6.197699065069173e-08,
            -6.122297691035783e-08,
            -6.046897027545128e-08,
            -5.971496364054475e-08,
            -5.8960953452924514e-08,
            -5.8206943265304296e-08,
            -5.7452933077684065e-08,
            -5.6698926442777526e-08,
            -5.5944916255157295e-08,
            -5.51909060675371e-08,
            -5.443689943263053e-08,
            -5.36828892450103e-08,
            -5.2928879057390084e-08,
            -5.217487242248353e-08,
            -5.1420862234863314e-08,
            -5.066685204724308e-08,
            -4.9912845412336544e-08,
            -4.915883522471631e-08,
            -4.8404828589809774e-08,
            -4.765081840218954e-08,
            -4.689680821456933e-08,
            -4.614280157966277e-08,
            -4.538879139204256e-08,
            -4.463478120442233e-08,
            -4.3880774569515786e-08,
            -4.3126764381895555e-08,
            -4.237275419427533e-08,
            -4.1618747559368785e-08,
            -4.086473737174856e-08,
            -4.0110727184128336e-08,
            -3.935672054922179e-08,
            -3.8602710361601567e-08,
            -3.784870372669502e-08,
            -3.70946935390748e-08,
            -3.634068335145457e-08,
            -3.5586676716548034e-08,
            -3.48326665289278e-08,
            -3.4078656341307585e-08,
            -3.332464970640103e-08,
            -3.2570639518780815e-08,
            -3.1816629331160584e-08,
            -3.1062622696254045e-08,
            -3.0308612508633814e-08,
            -2.9554604097370433e-08,
            -2.8800595686107044e-08,
            -2.8046585498486823e-08,
            -2.7292577087223435e-08,
            -2.6538568675960057e-08,
            -2.5784560264696665e-08,
            -2.503055007707644e-08,
            -2.4276541665813056e-08,
            -2.352253325454967e-08,
            -2.2768524843286293e-08,
            -2.2014514655666065e-08,
            -2.1260506244402677e-08,
            -2.0506497833139292e-08,
            -1.9752487645519068e-08,
            -1.8998479234255683e-08,
            -1.8244470822992295e-08,
            -1.7490462411728913e-08,
            -1.6736452224108692e-08,
            -1.5982443812845304e-08,
            -1.5228435401581922e-08,
            -1.4474426102140114e-08,
            -1.3720416802698311e-08,
            -1.2966408391434925e-08,
            -1.221239909199312e-08,
            -1.1458390680729737e-08,
            -1.070438138128793e-08,
            -9.950372970024546e-09,
            -9.196363670582741e-09,
            -8.442354371140937e-09,
            -7.688345959877552e-09,
            -6.934336660435747e-09,
            -6.180327805083152e-09,
            -5.4263189497305575e-09,
            -4.672310094377963e-09,
            -3.918301239025368e-09,
            -3.1642923836727732e-09,
            -2.410283528320178e-09,
            -1.6562744509229786e-09,
            -9.02265595570384e-10,
            -1.48256684706638e-10,
            6.05752226157108e-10,
            1.359761192532005e-09,
            2.1137700478846e-09,
            2.8677789032371943e-09,
            3.621787758589789e-09,
            4.375796613942384e-09,
            5.129805913384189e-09,
            5.8838147687367845e-09,
            6.6378236240893784e-09,
            7.391832479441973e-09,
            8.145841334794568e-09,
            8.899850634236373e-09,
            9.653859045499756e-09,
            1.0407868344941562e-08,
            1.1161876756204949e-08,
            1.1915886055646752e-08,
            1.2669894466910137e-08,
            1.3423903766351941e-08,
            1.4177912177615326e-08,
            1.493192236523555e-08,
            1.5685930776498935e-08,
            1.643993918776232e-08,
            1.7193947599025705e-08,
            1.7947957786645933e-08,
            1.870196619790931e-08,
            1.94559746091727e-08,
            2.0209984796792924e-08,
            2.0963993208056312e-08,
            2.1718001619319693e-08,
            2.247201003058308e-08,
            2.3226020218203306e-08,
            2.3980028629466688e-08,
            2.4734037040730072e-08,
            2.5488045451993457e-08,
            2.6242055639613682e-08,
            2.6996064050877073e-08,
            2.775007246214045e-08,
            2.8504082649760676e-08,
            2.9258091061024064e-08,
            3.0012099472287446e-08,
            3.076610965990767e-08,
            3.1520116294814216e-08,
            3.227412648243444e-08,
            3.3028136670054664e-08,
            3.378214330496121e-08,
            3.4536153492581434e-08,
            3.5290163680201665e-08,
            3.604417031510821e-08,
            3.6798180502728435e-08,
            3.7552187137634974e-08,
            3.83061973252552e-08,
            3.906020751287542e-08,
            3.9814214147781974e-08,
            4.056822433540219e-08,
            4.1322234523022416e-08,
            4.207624115792896e-08,
            4.2830251345549186e-08,
            4.358426153316941e-08,
            4.4338268168075956e-08,
            4.5092278355696194e-08,
            4.584628854331641e-08,
            4.6600295178222963e-08,
            4.7354305365843175e-08,
            4.8108312000749727e-08,
            4.8862322188369944e-08,
            4.9616332375990175e-08,
            5.0370339010896714e-08,
            5.1124349198516945e-08,
            5.187835938613716e-08,
            5.2632366021043715e-08,
            5.338637620866393e-08,
            5.4140386396284164e-08,
            5.48943930311907e-08,
            5.5648403218810947e-08,
            5.640241340643118e-08,
            5.7156420041337697e-08,
            5.7910430228957934e-08,
            5.8664436863864466e-08,
            5.94184470514847e-08,
            6.017245368639125e-08,
            6.092646742672514e-08,
            6.168047406163168e-08,
            6.243448069653823e-08,
            6.318849443687213e-08,
            6.394250107177868e-08,
            6.469650770668522e-08,
            6.545052144701914e-08,
            6.620452808192567e-08,
            6.695853471683223e-08,
            6.771254845716612e-08,
            6.846655509207268e-08,
            6.922056172697921e-08,
            6.997457546731314e-08,
            7.072858210221966e-08,
            7.148258873712622e-08,
            7.223659537203275e-08,
            7.299060911236668e-08,
            7.37446157472732e-08,
            7.449862238217976e-08,
            7.525263612251365e-08,
            7.60066427574202e-08,
            7.676064939232674e-08,
            7.751466313266064e-08,
            7.82686697675672e-08,
            7.902267640247373e-08,
            7.977669014280765e-08,
            8.053069677771418e-08
        ],
        "_type": "histogram",
        "values": [
            1,
            0,
            0,
            0,
            0,
            0,
            0,
            0,
            0,
            0,
            0,
            0,
            0,
            0,
            0,
            0,
            0,
            0,
            0,
            0,
            0,
            0,
            0,
            0,
            0,
            0,
            0,
            0,
            0,
            0,
            0,
            0,
            0,
            0,
            0,
            0,
            0,
            0,
            0,
            0,
            0,
            0,
            0,
            0,
            0,
            0,
            0,
            0,
            0,
            0,
            0,
            1,
            0,
            0,
            0,
            0,
            0,
            0,
            0,
            0,
            0,
            0,
            1,
            0,
            0,
            0,
            0,
            0,
            0,
            0,
            0,
            0,
            0,
            0,
            0,
            0,
            0,
            0,
            0,
            0,
            0,
            0,
            0,
            0,
            0,
            0,
            0,
            0,
            0,
            0,
            0,
            0,
            0,
            0,
            0,
            0,
            0,
            0,
            0,
            1,
            0,
            0,
            0,
            0,
            0,
            0,
            0,
            1,
            0,
            0,
            0,
            1,
            0,
            0,
            0,
            0,
            0,
            0,
            0,
            1,
            0,
            0,
            1,
            0,
            0,
            0,
            0,
            0,
            1,
            0,
            0,
            0,
            1,
            0,
            0,
            1,
            0,
            0,
            0,
            1,
            0,
            2,
            1,
            0,
            0,
            1,
            0,
            0,
            0,
            1,
            6,
            19,
            4,
            0,
            2,
            1,
            1,
            0,
            2,
            2,
            0,
            0,
            0,
            1,
            0,
            0,
            0,
            0,
            1,
            0,
            1,
            0,
            1,
            0,
            0,
            0,
            0,
            0,
            0,
            0,
            0,
            0,
            0,
            0,
            0,
            0,
            0,
            0,
            0,
            0,
            0,
            1,
            0,
            0,
            0,
            0,
            2,
            0,
            0,
            0,
            0,
            0,
            0,
            0,
            0,
            1,
            0,
            0,
            0,
            0,
            0,
            0,
            0,
            0,
            0,
            0,
            0,
            0,
            0,
            0,
            0,
            0,
            0,
            0,
            0,
            0,
            0,
            0,
            0,
            0,
            0,
            0,
            0,
            0,
            0,
            0,
            0,
            0,
            0,
            0,
            0,
            0,
            0,
            0,
            0,
            0,
            0,
            0,
            1,
            0,
            0,
            0,
            0,
            0,
            0,
            1
        ]
    },
    "Gradients/L2_Linear_bias": {
        "bins": [
            -1.862645149230957e-09,
            0.0013020813930779696,
            0.0026041646488010883,
            0.003906247904524207,
            0.005208331160247326,
            0.006510414648801088,
            0.0078124976716935635,
            0.009114581160247326,
            0.0104166641831398,
            0.011718747206032276,
            0.013020831160247326,
            0.0143229141831398,
            0.015624997206032276,
            0.01692708022892475,
            0.0182291641831398,
            0.0195312462747097,
            0.02083333022892475,
            0.0221354141831398,
            0.0234374962747097,
            0.02473958022892475,
            0.0260416641831398,
            0.0273437462747097,
            0.02864583022892475,
            0.029947912320494652,
            0.0312499962747097,
            0.0325520783662796,
            0.0338541641831398,
            0.0351562462747097,
            0.0364583283662796,
            0.0377604141831398,
            0.0390624962747097,
            0.0403645783662796,
            0.0416666641831398,
            0.0429687462747097,
            0.0442708283662796,
            0.0455729141831398,
            0.0468749962747097,
            0.0481770783662796,
            0.0494791604578495,
            0.0507812462747097,
            0.0520833283662796,
            0.0533854104578495,
            0.0546874962747097,
            0.0559895783662796,
            0.0572916604578495,
            0.0585937462747097,
            0.0598958283662796,
            0.0611979104578495,
            0.0624999962747097,
            0.0638020783662796,
            0.0651041641831398,
            0.0664062425494194,
            0.0677083283662796,
            0.0690104141831398,
            0.0703124925494194,
            0.0716145783662796,
            0.0729166641831398,
            0.0742187425494194,
            0.0755208283662796,
            0.0768229141831398,
            0.0781249925494194,
            0.0794270783662796,
            0.0807291567325592,
            0.0820312425494194,
            0.0833333283662796,
            0.0846354067325592,
            0.0859374925494194,
            0.0872395783662796,
            0.0885416567325592,
            0.0898437425494194,
            0.0911458283662796,
            0.0924479067325592,
            0.0937499925494194,
            0.0950520783662796,
            0.0963541567325592,
            0.0976562425494194,
            0.0989583283662796,
            0.1002604067325592,
            0.1015624925494194,
            0.1028645783662796,
            0.1041666567325592,
            0.1054687425494194,
            0.1067708283662796,
            0.1080729067325592,
            0.1093749925494194,
            0.1106770783662796,
            0.1119791567325592,
            0.1132812425494194,
            0.1145833283662796,
            0.1158854067325592,
            0.1171874925494194,
            0.1184895783662796,
            0.1197916567325592,
            0.1210937425494194,
            0.1223958283662796,
            0.1236979067325592,
            0.1249999925494194,
            0.1263020783662796,
            0.1276041567325592,
            0.1289062350988388,
            0.1302083283662796,
            0.1315104067325592,
            0.1328124850988388,
            0.1341145783662796,
            0.1354166567325592,
            0.1367187350988388,
            0.1380208283662796,
            0.1393229067325592,
            0.1406249850988388,
            0.1419270783662796,
            0.1432291567325592,
            0.1445312350988388,
            0.1458333283662796,
            0.1471354067325592,
            0.1484374850988388,
            0.1497395783662796,
            0.1510416567325592,
            0.1523437350988388,
            0.1536458283662796,
            0.1549479067325592,
            0.1562499850988388,
            0.1575520783662796,
            0.1588541567325592,
            0.1601562350988388,
            0.1614583283662796,
            0.1627604067325592,
            0.1640624850988388,
            0.1653645783662796,
            0.1666666567325592,
            0.1679687350988388,
            0.1692708283662796,
            0.1705729067325592,
            0.1718749850988388,
            0.1731770783662796,
            0.1744791567325592,
            0.1757812350988388,
            0.1770833283662796,
            0.1783854067325592,
            0.1796874850988388,
            0.1809895783662796,
            0.1822916567325592,
            0.1835937350988388,
            0.1848958283662796,
            0.1861979067325592,
            0.1874999850988388,
            0.1888020783662796,
            0.1901041567325592,
            0.1914062350988388,
            0.1927083283662796,
            0.1940104067325592,
            0.1953124850988388,
            0.1966145634651184,
            0.1979166567325592,
            0.1992187350988388,
            0.2005208134651184,
            0.2018229067325592,
            0.2031249850988388,
            0.2044270634651184,
            0.2057291567325592,
            0.2070312350988388,
            0.2083333134651184,
            0.2096354067325592,
            0.2109374850988388,
            0.2122395634651184,
            0.2135416567325592,
            0.2148437350988388,
            0.2161458134651184,
            0.2174479067325592,
            0.2187499850988388,
            0.2200520634651184,
            0.2213541567325592,
            0.2226562350988388,
            0.2239583134651184,
            0.2252604067325592,
            0.2265624850988388,
            0.2278645634651184,
            0.2291666567325592,
            0.2304687350988388,
            0.2317708134651184,
            0.2330729067325592,
            0.2343749850988388,
            0.2356770634651184,
            0.2369791567325592,
            0.2382812350988388,
            0.2395833134651184,
            0.2408854067325592,
            0.2421874850988388,
            0.2434895634651184,
            0.2447916567325592,
            0.2460937350988388,
            0.2473958134651184,
            0.2486979067325592,
            0.2499999850988388,
            0.2513020634651184,
            0.2526041567325592,
            0.2539062201976776,
            0.2552083134651184,
            0.2565104067325592,
            0.2578124701976776,
            0.2591145634651184,
            0.2604166567325592,
            0.2617187201976776,
            0.2630208134651184,
            0.2643229067325592,
            0.2656249701976776,
            0.2669270634651184,
            0.2682291567325592,
            0.2695312201976776,
            0.2708333134651184,
            0.2721354067325592,
            0.2734374701976776,
            0.2747395634651184,
            0.2760416567325592,
            0.2773437201976776,
            0.2786458134651184,
            0.2799479067325592,
            0.2812499701976776,
            0.2825520634651184,
            0.2838541567325592,
            0.2851562201976776,
            0.2864583134651184,
            0.2877604067325592,
            0.2890624701976776,
            0.2903645634651184,
            0.2916666567325592,
            0.2929687201976776,
            0.2942708134651184,
            0.2955729067325592,
            0.2968749701976776,
            0.2981770634651184,
            0.2994791567325592,
            0.3007812201976776,
            0.3020833134651184,
            0.3033854067325592,
            0.3046874701976776,
            0.3059895634651184,
            0.3072916567325592,
            0.3085937201976776,
            0.3098958134651184,
            0.3111979067325592,
            0.3124999701976776,
            0.3138020634651184,
            0.3151041567325592,
            0.3164062201976776,
            0.3177083134651184,
            0.3190104067325592,
            0.3203124701976776,
            0.3216145634651184,
            0.3229166567325592,
            0.3242187201976776,
            0.3255208134651184,
            0.3268229067325592,
            0.3281249701976776,
            0.3294270634651184,
            0.3307291567325592,
            0.3320312201976776,
            0.3333333134651184
        ],
        "_type": "histogram",
        "values": [
            1,
            0,
            0,
            0,
            0,
            0,
            0,
            0,
            0,
            0,
            0,
            0,
            0,
            0,
            0,
            0,
            0,
            0,
            0,
            0,
            0,
            0,
            0,
            0,
            0,
            0,
            0,
            0,
            0,
            0,
            0,
            0,
            1,
            0,
            0,
            0,
            0,
            0,
            0,
            0,
            0,
            0,
            0,
            0,
            0,
            0,
            0,
            0,
            0,
            0,
            0,
            0,
            0,
            0,
            0,
            0,
            0,
            0,
            0,
            0,
            0,
            0,
            0,
            0,
            0,
            0,
            0,
            0,
            0,
            0,
            0,
            0,
            0,
            0,
            0,
            0,
            0,
            0,
            0,
            0,
            0,
            0,
            0,
            0,
            0,
            0,
            0,
            0,
            0,
            0,
            0,
            0,
            0,
            0,
            0,
            0,
            0,
            0,
            0,
            0,
            0,
            0,
            0,
            0,
            0,
            0,
            0,
            0,
            0,
            0,
            0,
            0,
            0,
            0,
            0,
            0,
            0,
            0,
            0,
            0,
            0,
            0,
            0,
            0,
            0,
            0,
            0,
            0,
            0,
            0,
            0,
            0,
            0,
            0,
            0,
            0,
            0,
            0,
            0,
            0,
            0,
            0,
            0,
            0,
            0,
            0,
            0,
            0,
            0,
            0,
            0,
            0,
            0,
            0,
            0,
            0,
            0,
            0,
            0,
            0,
            0,
            0,
            0,
            0,
            0,
            0,
            0,
            0,
            0,
            0,
            0,
            0,
            0,
            0,
            0,
            0,
            0,
            0,
            0,
            0,
            0,
            0,
            0,
            0,
            0,
            0,
            0,
            0,
            0,
            0,
            0,
            0,
            0,
            0,
            0,
            0,
            0,
            0,
            0,
            0,
            0,
            0,
            0,
            0,
            0,
            0,
            0,
            0,
            0,
            0,
            0,
            0,
            0,
            0,
            0,
            0,
            0,
            0,
            0,
            0,
            0,
            0,
            0,
            0,
            0,
            0,
            0,
            0,
            0,
            0,
            0,
            0,
            0,
            0,
            0,
            0,
            0,
            0,
            0,
            0,
            0,
            0,
            0,
            0,
            0,
            0,
            0,
            0,
            0,
            0,
            0,
            0,
            0,
            0,
            0,
            1
        ]
    },
    "Graphs/train custom_loss": 121.63485427129837,
    "Weights/L1_Linear_weights": {
        "bins": [
            -1.4761954545974731,
            -1.424840211868286,
            -1.373485088348389,
            -1.3221298456192017,
            -1.2707746028900146,
            -1.2194194793701172,
            -1.1680642366409302,
            -1.1167091131210327,
            -1.0653538703918457,
            -1.0139986276626587,
            -0.9626435041427612,
            -0.9112882614135742,
            -0.859933078289032,
            -0.8085778951644897,
            -0.7572226524353027,
            -0.7058674693107605,
            -0.6545122861862183,
            -0.603157103061676,
            -0.5518019199371338,
            -0.5004466772079468,
            -0.44909149408340454,
            -0.3977363109588623,
            -0.3463810980319977,
            -0.29502588510513306,
            -0.2436707019805908,
            -0.1923155039548874,
            -0.14096030592918396,
            -0.08960510790348053,
            -0.0382499098777771,
            0.01310528814792633,
            0.06446048617362976,
            0.1158156841993332,
            0.16717088222503662,
            0.21852608025074005,
            0.2698812782764435,
            0.3212364912033081,
            0.37259167432785034,
            0.4239468574523926,
            0.4753020703792572,
            0.5266572833061218,
            0.5780124664306641,
            0.6293676495552063,
            0.6807228326797485,
            0.7320780754089355,
            0.7834332585334778,
            0.83478844165802,
            0.886143684387207,
            0.9374988675117492,
            0.9888540506362916,
            1.0402092933654783,
            1.091564416885376,
            1.142919659614563,
            1.19427490234375,
            1.2456300258636477,
            1.2969852685928345,
            1.348340392112732,
            1.399695634841919,
            1.451050877571106,
            1.5024060010910034,
            1.5537612438201904,
            1.605116367340088,
            1.656471610069275,
            1.707826852798462,
            1.7591819763183594,
            1.8105372190475464
        ],
        "_type": "histogram",
        "values": [
            2,
            2,
            0,
            1,
            2,
            1,
            2,
            5,
            3,
            3,
            4,
            7,
            7,
            6,
            6,
            4,
            9,
            7,
            7,
            8,
            7,
            8,
            10,
            11,
            9,
            7,
            8,
            8,
            14,
            11,
            11,
            17,
            4,
            5,
            4,
            9,
            8,
            4,
            5,
            12,
            6,
            9,
            8,
            6,
            5,
            4,
            4,
            2,
            2,
            1,
            4,
            2,
            2,
            1,
            0,
            1,
            1,
            1,
            1,
            1,
            0,
            0,
            0,
            1
        ]
    },
    "Weights/L2_Linear_weights": {
        "bins": [
            -0.43080565333366394,
            -0.418250024318695,
            -0.4056944251060486,
            -0.3931387960910797,
            -0.3805831670761109,
            -0.3680275678634643,
            -0.3554719388484955,
            -0.3429163098335266,
            -0.3303607106208801,
            -0.31780508160591125,
            -0.3052494525909424,
            -0.2926938235759735,
            -0.280138224363327,
            -0.26758259534835815,
            -0.2550269663333893,
            -0.2424713522195816,
            -0.22991573810577393,
            -0.21736012399196625,
            -0.20480449497699735,
            -0.1922488808631897,
            -0.17969325184822085,
            -0.16713763773441315,
            -0.15458202362060547,
            -0.1420263946056366,
            -0.12947078049182892,
            -0.11691515892744064,
            -0.10435953736305235,
            -0.09180392324924468,
            -0.07924830168485641,
            -0.06669268012046814,
            -0.05413706228137016,
            -0.041581444442272186,
            -0.02902582287788391,
            -0.016470203176140785,
            -0.003914583474397659,
            0.008641036227345467,
            0.021196655929088593,
            0.03375227749347687,
            0.04630789533257485,
            0.05886351317167282,
            0.0714191347360611,
            0.08397475630044937,
            0.09653037786483765,
            0.10908599197864532,
            0.1216416135430336,
            0.13419723510742188,
            0.14675284922122955,
            0.15930847823619845,
            0.1718640923500061,
            0.18441970646381375,
            0.19697533547878265,
            0.20953094959259033,
            0.2220865786075592,
            0.23464219272136688,
            0.24719780683517456,
            0.25975343585014343,
            0.2723090648651123,
            0.2848646640777588,
            0.29742029309272766,
            0.30997592210769653,
            0.322531521320343,
            0.3350871503353119,
            0.34764277935028076,
            0.36019837856292725,
            0.3727540075778961
        ],
        "_type": "histogram",
        "values": [
            1,
            0,
            0,
            0,
            2,
            1,
            2,
            2,
            2,
            1,
            5,
            2,
            6,
            4,
            3,
            5,
            4,
            4,
            7,
            9,
            6,
            11,
            10,
            13,
            19,
            13,
            11,
            10,
            17,
            15,
            13,
            8,
            8,
            13,
            6,
            5,
            13,
            7,
            4,
            10,
            11,
            9,
            6,
            9,
            9,
            7,
            5,
            11,
            4,
            5,
            14,
            5,
            8,
            4,
            6,
            4,
            3,
            1,
            2,
            5,
            0,
            1,
            2,
            2
        ]
    },
    "Gradients/L1_Linear_weights": {
        "bins": [
            -0.001073113060556352,
            -0.0010661511914804578,
            -0.0010591893224045634,
            -0.001052227453328669,
            -0.0010452654678374529,
            -0.0010383035987615583,
            -0.0010313417296856642,
            -0.0010243798606097698,
            -0.0010174179915338757,
            -0.0010104561224579811,
            -0.0010034942533820868,
            -0.0009965322678908706,
            -0.0009895703988149762,
            -0.000982608529739082,
            -0.0009756466606631876,
            -0.0009686847915872931,
            -0.000961722864303738,
            -0.0009547609952278436,
            -0.0009477991261519492,
            -0.0009408372570760548,
            -0.0009338753297924997,
            -0.0009269134607166052,
            -0.0009199515916407108,
            -0.0009129896643571556,
            -0.0009060277952812612,
            -0.0008990659262053668,
            -0.0008921039989218116,
            -0.0008851421298459172,
            -0.0008781802607700229,
            -0.0008712183916941285,
            -0.0008642564644105732,
            -0.0008572945953346789,
            -0.0008503327262587845,
            -0.0008433707989752293,
            -0.0008364089298993349,
            -0.0008294470608234406,
            -0.0008224851917475462,
            -0.0008155232644639909,
            -0.0008085613953880966,
            -0.0008015995263122022,
            -0.000794637599028647,
            -0.0007876757299527526,
            -0.0007807138608768582,
            -0.0007737519918009639,
            -0.0007667900645174086,
            -0.0007598281954415143,
            -0.0007528663263656199,
            -0.0007459043990820646,
            -0.0007389425300061703,
            -0.0007319806609302759,
            -0.0007250187918543816,
            -0.0007180568645708263,
            -0.0007110949954949319,
            -0.0007041331264190376,
            -0.0006971711991354823,
            -0.000690209330059588,
            -0.0006832474609836936,
            -0.0006762855919077992,
            -0.000669323664624244,
            -0.0006623617955483496,
            -0.0006553999264724553,
            -0.0006484379991889,
            -0.0006414761301130056,
            -0.0006345142610371113,
            -0.0006275523919612169,
            -0.0006205904646776617,
            -0.0006136285956017673,
            -0.0006066667265258729,
            -0.0005997047992423177,
            -0.0005927429301664233,
            -0.000585781061090529,
            -0.0005788191338069737,
            -0.0005718572647310793,
            -0.000564895395655185,
            -0.0005579335265792906,
            -0.0005509715992957354,
            -0.000544009730219841,
            -0.0005370478611439466,
            -0.0005300859338603914,
            -0.000523124064784497,
            -0.0005161621957086027,
            -0.0005092003266327083,
            -0.000502238399349153,
            -0.0004952765302732587,
            -0.0004883146611973643,
            -0.0004813527630176395,
            -0.0004743908648379147,
            -0.0004674289957620203,
            -0.00046046709758229554,
            -0.0004535052285064012,
            -0.0004465433303266764,
            -0.0004395814321469515,
            -0.0004326195630710572,
            -0.0004256576648913324,
            -0.000418695795815438,
            -0.0004117338976357132,
            -0.0004047719994559884,
            -0.0003978101303800941,
            -0.0003908482322003693,
            -0.0003838863631244749,
            -0.00037692446494475007,
            -0.0003699625958688557,
            -0.0003630006976891309,
            -0.0003560387995094061,
            -0.00034907693043351173,
            -0.0003421150322537869,
            -0.00033515316317789257,
            -0.00032819126499816775,
            -0.0003212293959222734,
            -0.0003142674977425486,
            -0.00030730559956282377,
            -0.0003003437304869294,
            -0.0002933818323072046,
            -0.00028641996323131025,
            -0.00027945806505158544,
            -0.0002724961959756911,
            -0.00026553429779596627,
            -0.00025857239961624146,
            -0.0002516105305403471,
            -0.0002446486323606223,
            -0.0002376867487328127,
            -0.00023072486510500312,
            -0.0002237629814771935,
            -0.00021680109784938395,
            -0.00020983921422157437,
            -0.00020287731604184955,
            -0.00019591543241403997,
            -0.0001889535487862304,
            -0.0001819916651584208,
            -0.00017502978153061122,
            -0.00016806789790280163,
            -0.00016110601427499205,
            -0.00015414411609526724,
            -0.00014718223246745765,
            -0.00014022034883964807,
            -0.00013325846521183848,
            -0.0001262965815840289,
            -0.0001193346906802617,
            -0.00011237280705245212,
            -0.00010541092342464252,
            -9.844903252087532e-05,
            -9.148714889306576e-05,
            -8.452526526525617e-05,
            -7.756337436148897e-05,
            -7.060149073367938e-05,
            -6.36396071058698e-05,
            -5.667771984008141e-05,
            -4.971583257429302e-05,
            -4.275394894648343e-05,
            -3.579206168069504e-05,
            -2.883017441490665e-05,
            -2.1868288968107663e-05,
            -1.4906403521308675e-05,
            -7.944518074509688e-06,
            -9.826317182159985e-07,
            5.97925418333034e-06,
            1.294114008487668e-05,
            1.9903025531675667e-05,
            2.6864912797464054e-05,
            3.382679642527364e-05,
            4.078868369106203e-05,
            4.7750570956850424e-05,
            5.471245458466001e-05,
            6.16743418504484e-05,
            6.863622547825798e-05,
            7.559811638202518e-05,
            8.256000000983477e-05,
            8.952188363764435e-05,
            9.648376726545392e-05,
            0.00010344565816922112,
            0.00011040754179703072,
            0.0001173694254248403,
            0.0001243313163286075,
            0.00013129319995641708,
            0.00013825508358422667,
            0.00014521696721203625,
            0.00015217886539176106,
            0.00015914074901957065,
            0.00016610263264738023,
            0.00017306451627518982,
            0.0001800263999029994,
            0.000186988283530809,
            0.00019395016715861857,
            0.00020091206533834335,
            0.00020787394896615297,
            0.00021483583259396255,
            0.0002217977162217721,
            0.00022875959984958172,
            0.0002357214834773913,
            0.00024268338165711612,
            0.0002496452652849257,
            0.00025660713436082006,
            0.00026356903254054487,
            0.0002705309307202697,
            0.00027749279979616404,
            0.00028445469797588885,
            0.0002914165670517832,
            0.000298378465231508,
            0.00030534033430740237,
            0.0003123022324871272,
            0.000319264130666852,
            0.00032622599974274635,
            0.00033318789792247117,
            0.0003401497669983655,
            0.00034711166517809033,
            0.00035407356335781515,
            0.0003610354324337095,
            0.0003679973306134343,
            0.0003749591996893286,
            0.0003819210978690535,
            0.00038888296694494784,
            0.00039584486512467265,
            0.00040280676330439746,
            0.0004097686323802918,
            0.00041673053056001663,
            0.000423692399635911,
            0.0004306542978156358,
            0.00043761616689153016,
            0.00044457806507125497,
            0.0004515399632509798,
            0.00045850183232687414,
            0.00046546373050659895,
            0.0004724255995824933,
            0.0004793874977622181,
            0.000486349395941943,
            0.0004933112650178373,
            0.0005002731340937316,
            0.0005072350613772869,
            0.0005141969304531813,
            0.0005211587995290756,
            0.00052812066860497,
            0.0005350825958885252,
            0.0005420444649644196,
            0.000549006334040314,
            0.0005559682613238692,
            0.0005629301303997636,
            0.0005698919994756579,
            0.0005768539267592132,
            0.0005838157958351076,
            0.0005907776649110019,
            0.0005977395339868963,
            0.0006047014612704515,
            0.0006116633303463459,
            0.0006186251994222403,
            0.0006255871267057955,
            0.0006325489957816899,
            0.0006395108648575842,
            0.0006464727339334786,
            0.0006534346612170339,
            0.0006603965302929282,
            0.0006673583993688226,
            0.0006743203266523778,
            0.0006812821957282722,
            0.0006882440648041666,
            0.0006952059338800609,
            0.0007021678611636162,
            0.0007091297302395105
        ],
        "_type": "histogram",
        "values": [
            1,
            0,
            0,
            0,
            0,
            0,
            0,
            0,
            0,
            0,
            0,
            0,
            0,
            0,
            0,
            0,
            0,
            0,
            0,
            0,
            0,
            0,
            0,
            0,
            0,
            0,
            0,
            0,
            0,
            0,
            0,
            0,
            0,
            0,
            0,
            0,
            0,
            0,
            0,
            0,
            0,
            0,
            0,
            0,
            0,
            0,
            0,
            0,
            0,
            0,
            0,
            0,
            0,
            1,
            0,
            0,
            0,
            0,
            0,
            0,
            0,
            0,
            0,
            0,
            0,
            0,
            0,
            0,
            0,
            0,
            0,
            0,
            0,
            0,
            0,
            0,
            0,
            0,
            0,
            0,
            0,
            0,
            1,
            0,
            0,
            0,
            0,
            0,
            0,
            0,
            0,
            0,
            0,
            0,
            0,
            0,
            0,
            0,
            0,
            0,
            0,
            0,
            1,
            0,
            0,
            2,
            0,
            0,
            0,
            0,
            0,
            0,
            1,
            0,
            0,
            0,
            0,
            0,
            0,
            0,
            0,
            1,
            0,
            0,
            0,
            0,
            0,
            0,
            0,
            1,
            0,
            0,
            0,
            0,
            0,
            0,
            0,
            0,
            0,
            0,
            0,
            1,
            2,
            1,
            1,
            0,
            0,
            0,
            0,
            1,
            1,
            0,
            3,
            41,
            208,
            13,
            19,
            3,
            2,
            1,
            1,
            1,
            1,
            0,
            0,
            0,
            0,
            1,
            0,
            0,
            0,
            0,
            0,
            0,
            0,
            0,
            1,
            0,
            1,
            0,
            0,
            0,
            0,
            0,
            1,
            0,
            0,
            0,
            0,
            1,
            0,
            1,
            0,
            0,
            0,
            0,
            1,
            0,
            0,
            0,
            0,
            0,
            0,
            0,
            0,
            0,
            0,
            0,
            0,
            0,
            0,
            0,
            1,
            0,
            0,
            0,
            0,
            0,
            0,
            0,
            0,
            0,
            0,
            0,
            0,
            0,
            0,
            0,
            0,
            0,
            0,
            0,
            0,
            0,
            0,
            0,
            0,
            1,
            0,
            0,
            0,
            0,
            0,
            0,
            0,
            1,
            0,
            0,
            0,
            0,
            0,
            0,
            0,
            0,
            0,
            1
        ]
    },
    "Gradients/L2_Linear_weights": {
        "bins": [
            -114.66967010498048,
            -114.15802764892578,
            -113.64637756347656,
            -113.13473510742188,
            -112.62308502197266,
            -112.11144256591795,
            -111.59979248046876,
            -111.08815002441406,
            -110.57650756835938,
            -110.06485748291016,
            -109.55321502685548,
            -109.04156494140624,
            -108.52992248535156,
            -108.01827239990234,
            -107.50662994384766,
            -106.99498748779295,
            -106.48333740234376,
            -105.97169494628906,
            -105.46004486083984,
            -104.94840240478516,
            -104.43675231933594,
            -103.92510986328124,
            -103.41346740722656,
            -102.90181732177734,
            -102.39017486572266,
            -101.87852478027344,
            -101.36688232421876,
            -100.85523223876952,
            -100.34358978271484,
            -99.83194732666016,
            -99.32029724121094,
            -98.80865478515624,
            -98.29700469970705,
            -97.78536224365234,
            -97.27371215820312,
            -96.76206970214844,
            -96.25042724609376,
            -95.73877716064452,
            -95.22713470458984,
            -94.71548461914062,
            -94.20384216308594,
            -93.69219207763672,
            -93.18054962158205,
            -92.66890716552734,
            -92.15725708007812,
            -91.64561462402344,
            -91.13396453857422,
            -90.62232208251952,
            -90.11067199707033,
            -89.59902954101562,
            -89.08738708496094,
            -88.57573699951172,
            -88.06409454345703,
            -87.55244445800781,
            -87.04080200195312,
            -86.5291519165039,
            -86.01750946044922,
            -85.50586700439453,
            -84.99421691894531,
            -84.48257446289062,
            -83.9709243774414,
            -83.45928192138672,
            -82.9476318359375,
            -82.43598937988281,
            -81.92434692382812,
            -81.4126968383789,
            -80.90105438232422,
            -80.389404296875,
            -79.87776184082031,
            -79.3661117553711,
            -78.8544692993164,
            -78.34282684326172,
            -77.8311767578125,
            -77.31953430175781,
            -76.8078842163086,
            -76.2962417602539,
            -75.78459167480469,
            -75.27294921875,
            -74.76130676269531,
            -74.2496566772461,
            -73.7380142211914,
            -73.22636413574219,
            -72.7147216796875,
            -72.20307159423828,
            -71.6914291381836,
            -71.1797866821289,
            -70.66813659667969,
            -70.156494140625,
            -69.64484405517578,
            -69.1332015991211,
            -68.6215591430664,
            -68.10990905761719,
            -67.5982666015625,
            -67.08661651611328,
            -66.5749740600586,
            -66.06332397460938,
            -65.55168151855469,
            -65.0400390625,
            -64.52838897705078,
            -64.0167465209961,
            -63.505096435546875,
            -62.99345397949219,
            -62.481807708740234,
            -61.97016143798828,
            -61.45851516723633,
            -60.946868896484375,
            -60.43522262573242,
            -59.92357635498047,
            -59.41193389892578,
            -58.90028762817383,
            -58.388641357421875,
            -57.87699508666992,
            -57.36534881591797,
            -56.853702545166016,
            -56.34205627441406,
            -55.830413818359375,
            -55.31876754760742,
            -54.80712127685547,
            -54.29547500610352,
            -53.78382873535156,
            -53.27218246459961,
            -52.760536193847656,
            -52.24889373779297,
            -51.737247467041016,
            -51.22560119628906,
            -50.71395492553711,
            -50.20230865478515,
            -49.6906623840332,
            -49.17901611328125,
            -48.66737365722656,
            -48.15572738647461,
            -47.644081115722656,
            -47.1324348449707,
            -46.62078857421875,
            -46.1091423034668,
            -45.59749984741211,
            -45.08585357666016,
            -44.5742073059082,
            -44.06256103515625,
            -43.5509147644043,
            -43.039268493652344,
            -42.52762222290039,
            -42.0159797668457,
            -41.50433349609375,
            -40.9926872253418,
            -40.48104095458984,
            -39.96939468383789,
            -39.45774841308594,
            -38.946102142333984,
            -38.4344596862793,
            -37.922813415527344,
            -37.41116714477539,
            -36.89952087402344,
            -36.38787460327149,
            -35.87622833251953,
            -35.36458206176758,
            -34.85293960571289,
            -34.34129333496094,
            -33.829647064208984,
            -33.31800079345703,
            -32.80635452270508,
            -32.294708251953125,
            -31.783063888549805,
            -31.27141761779785,
            -30.7597713470459,
            -30.248126983642575,
            -29.736480712890625,
            -29.224834442138672,
            -28.71319007873535,
            -28.2015438079834,
            -27.689897537231445,
            -27.178251266479492,
            -26.666606903076172,
            -26.15496063232422,
            -25.643314361572266,
            -25.131669998168945,
            -24.620023727416992,
            -24.10837745666504,
            -23.59673118591309,
            -23.08508682250977,
            -22.573440551757812,
            -22.06179428100586,
            -21.55014991760254,
            -21.038503646850582,
            -20.526857376098633,
            -20.01521110534668,
            -19.50356674194336,
            -18.991920471191406,
            -18.480274200439453,
            -17.968629837036133,
            -17.45698356628418,
            -16.945337295532227,
            -16.433692932128906,
            -15.922046661376951,
            -15.410400390625,
            -14.898755073547363,
            -14.38710880279541,
            -13.875463485717772,
            -13.36381721496582,
            -12.852171897888184,
            -12.340526580810549,
            -11.828880310058594,
            -11.317234992980955,
            -10.805588722229004,
            -10.293943405151367,
            -9.78229808807373,
            -9.270651817321776,
            -8.75900650024414,
            -8.247360229492188,
            -7.735714912414551,
            -7.224069118499756,
            -6.712423324584961,
            -6.200777530670166,
            -5.689131736755371,
            -5.177485942840576,
            -4.6658406257629395,
            -4.1541948318481445,
            -3.6425490379333496,
            -3.1309032440185547,
            -2.61925745010376,
            -2.107611894607544,
            -1.595966100692749,
            -1.0843204259872437,
            -0.5726746916770935,
            -0.06102895736694336,
            0.4506167769432068,
            0.9622625112533568,
            1.4739081859588623,
            1.9855539798736572,
            2.497199535369873,
            3.008845329284668,
            3.520491123199463,
            4.032136917114258,
            4.543782711029053,
            5.0554280281066895,
            5.567073822021484,
            6.078719615936279,
            6.590365409851074,
            7.102011203765869,
            7.613656997680664,
            8.1253023147583,
            8.636948585510254,
            9.14859390258789,
            9.660240173339844,
            10.17188549041748,
            10.683530807495115,
            11.19517707824707,
            11.706822395324709,
            12.21846866607666,
            12.730113983154297,
            13.241759300231934,
            13.753405570983888,
            14.265050888061523,
            14.776697158813477,
            15.288342475891112,
            15.799988746643066,
            16.311634063720703
        ],
        "_type": "histogram",
        "values": [
            1,
            0,
            0,
            0,
            0,
            0,
            0,
            0,
            0,
            0,
            0,
            0,
            0,
            0,
            0,
            0,
            0,
            0,
            0,
            0,
            0,
            0,
            0,
            0,
            0,
            0,
            0,
            0,
            0,
            0,
            0,
            0,
            0,
            0,
            0,
            0,
            0,
            0,
            0,
            0,
            0,
            0,
            0,
            0,
            0,
            0,
            0,
            0,
            0,
            0,
            0,
            0,
            0,
            0,
            0,
            0,
            0,
            0,
            0,
            0,
            0,
            0,
            0,
            0,
            0,
            0,
            0,
            0,
            0,
            0,
            0,
            0,
            0,
            0,
            0,
            0,
            0,
            0,
            0,
            0,
            0,
            0,
            0,
            0,
            0,
            0,
            0,
            0,
            0,
            0,
            0,
            0,
            0,
            0,
            0,
            0,
            0,
            0,
            0,
            0,
            0,
            0,
            0,
            0,
            0,
            0,
            0,
            0,
            0,
            0,
            0,
            0,
            0,
            0,
            0,
            0,
            0,
            0,
            0,
            0,
            0,
            0,
            0,
            0,
            0,
            0,
            0,
            0,
            0,
            0,
            0,
            0,
            0,
            0,
            0,
            0,
            0,
            0,
            0,
            0,
            0,
            0,
            0,
            0,
            0,
            0,
            0,
            0,
            0,
            0,
            0,
            0,
            0,
            0,
            0,
            0,
            0,
            0,
            0,
            0,
            0,
            0,
            0,
            0,
            0,
            0,
            0,
            0,
            0,
            0,
            0,
            0,
            0,
            0,
            0,
            0,
            0,
            0,
            0,
            0,
            1,
            0,
            0,
            0,
            0,
            0,
            0,
            0,
            0,
            0,
            0,
            0,
            0,
            0,
            1,
            0,
            0,
            0,
            0,
            0,
            0,
            0,
            0,
            0,
            0,
            0,
            0,
            0,
            0,
            0,
            2,
            0,
            0,
            0,
            0,
            0,
            0,
            0,
            0,
            1,
            0,
            1,
            59,
            63,
            220,
            55,
            0,
            0,
            0,
            0,
            0,
            0,
            0,
            0,
            0,
            0,
            0,
            0,
            0,
            0,
            0,
            0,
            0,
            0,
            0,
            0,
            0,
            0,
            0,
            0,
            0,
            0,
            0,
            0,
            0,
            1
        ]
    }
}
